<?xml version="1.0"?>
<opencv_storage>
<cascade>
  <stageType>BOOST</stageType>
  <featureType>HAAR</featureType>
  <height>48</height>
  <width>64</width>
  <stageParams>
    <boostType>GAB</boostType>
    <minHitRate>9.9500000476837158e-01</minHitRate>
    <maxFalseAlarm>5.0000000000000000e-01</maxFalseAlarm>
    <weightTrimRate>9.4999998807907104e-01</weightTrimRate>
    <maxDepth>1</maxDepth>
    <maxWeakCount>100</maxWeakCount></stageParams>
  <featureParams>
    <maxCatCount>0</maxCatCount>
    <featSize>1</featSize>
    <mode>BASIC</mode></featureParams>
  <stageNum>20</stageNum>
  <stages>
    <!-- stage 0 -->
    <_>
      <maxWeakCount>4</maxWeakCount>
      <stageThreshold>-9.3771642446517944e-01</stageThreshold>
      <weakClassifiers>
        <_>
          <internalNodes>
            0 -1 111 1.8465573666617274e-03</internalNodes>
          <leafValues>
            -7.2626930475234985e-01 7.5000000000000000e-01</leafValues></_>
        <_>
          <internalNodes>
            0 -1 128 5.3499378263950348e-03</internalNodes>
          <leafValues>
            -5.1617974042892456e-01 7.4221909046173096e-01</leafValues></_>
        <_>
          <internalNodes>
            0 -1 116 -3.6392370238900185e-03</internalNodes>
          <leafValues>
            7.8714781999588013e-01 -4.8655626177787781e-01</leafValues></_>
        <_>
          <internalNodes>
            0 -1 68 -3.4093221183866262e-03</internalNodes>
          <leafValues>
            7.9128885269165039e-01 -3.9791080355644226e-01</leafValues></_></weakClassifiers></_>
    <!-- stage 1 -->
    <_>
      <maxWeakCount>5</maxWeakCount>
      <stageThreshold>-1.1352058649063110e+00</stageThreshold>
      <weakClassifiers>
        <_>
          <internalNodes>
            0 -1 101 -4.9565788358449936e-03</internalNodes>
          <leafValues>
            5.1515150070190430e-01 -6.7320263385772705e-01</leafValues></_>
        <_>
          <internalNodes>
            0 -1 119 -5.3129857406020164e-04</internalNodes>
          <leafValues>
            5.6081724166870117e-01 -4.1752326488494873e-01</leafValues></_>
        <_>
          <internalNodes>
            0 -1 4 4.2715733870863914e-03</internalNodes>
          <leafValues>
            -3.6989480257034302e-01 6.4714592695236206e-01</leafValues></_>
        <_>
          <internalNodes>
            0 -1 16 -2.5009936653077602e-03</internalNodes>
          <leafValues>
            6.7166948318481445e-01 -3.0161154270172119e-01</leafValues></_>
        <_>
          <internalNodes>
            0 -1 127 -3.6055094096809626e-04</internalNodes>
          <leafValues>
            6.3374209403991699e-01 -3.4625461697578430e-01</leafValues></_></weakClassifiers></_>
    <!-- stage 2 -->
    <_>
      <maxWeakCount>9</maxWeakCount>
      <stageThreshold>-1.3376264572143555e+00</stageThreshold>
      <weakClassifiers>
        <_>
          <internalNodes>
            0 -1 103 -6.4827273599803448e-03</internalNodes>
          <leafValues>
            4.3999999761581421e-01 -6.2526315450668335e-01</leafValues></_>
        <_>
          <internalNodes>
            0 -1 153 -1.3657473027706146e-03</internalNodes>
          <leafValues>
            5.1602804660797119e-01 -2.9851907491683960e-01</leafValues></_>
        <_>
          <internalNodes>
            0 -1 176 1.0456763993715867e-04</internalNodes>
          <leafValues>
            1.8460625410079956e-01 -6.8943619728088379e-01</leafValues></_>
        <_>
          <internalNodes>
            0 -1 164 5.8963654737453908e-05</internalNodes>
          <leafValues>
            2.4853196740150452e-01 -5.4323840141296387e-01</leafValues></_>
        <_>
          <internalNodes>
            0 -1 81 -3.7825771141797304e-04</internalNodes>
          <leafValues>
            6.2363767623901367e-01 -2.3844313621520996e-01</leafValues></_>
        <_>
          <internalNodes>
            0 -1 64 -1.1236206628382206e-03</internalNodes>
          <leafValues>
            5.6142032146453857e-01 -2.3162271082401276e-01</leafValues></_>
        <_>
          <internalNodes>
            0 -1 180 -8.8435175712220371e-05</internalNodes>
          <leafValues>
            -7.4734324216842651e-01 2.4013099074363708e-01</leafValues></_>
        <_>
          <internalNodes>
            0 -1 51 1.7469838261604309e-02</internalNodes>
          <leafValues>
            -2.5205770134925842e-01 7.4802517890930176e-01</leafValues></_>
        <_>
          <internalNodes>
            0 -1 67 2.3396774195134640e-03</internalNodes>
          <leafValues>
            -1.7055872082710266e-01 7.6792061328887939e-01</leafValues></_></weakClassifiers></_>
    <!-- stage 3 -->
    <_>
      <maxWeakCount>7</maxWeakCount>
      <stageThreshold>-9.3743336200714111e-01</stageThreshold>
      <weakClassifiers>
        <_>
          <internalNodes>
            0 -1 114 4.8519788833800703e-05</internalNodes>
          <leafValues>
            -6.9491523504257202e-01 1.0714285820722580e-01</leafValues></_>
        <_>
          <internalNodes>
            0 -1 86 -8.5577048594132066e-05</internalNodes>
          <leafValues>
            4.8895698785781860e-01 -3.5915932059288025e-01</leafValues></_>
        <_>
          <internalNodes>
            0 -1 106 -4.9398200644645840e-05</internalNodes>
          <leafValues>
            4.7198435664176941e-01 -3.4006366133689880e-01</leafValues></_>
        <_>
          <internalNodes>
            0 -1 152 2.5937319733202457e-03</internalNodes>
          <leafValues>
            -2.4539475142955780e-01 6.5036445856094360e-01</leafValues></_>
        <_>
          <internalNodes>
            0 -1 47 -7.6891054050065577e-05</internalNodes>
          <leafValues>
            4.7304430603981018e-01 -3.3596298098564148e-01</leafValues></_>
        <_>
          <internalNodes>
            0 -1 98 2.8777951956726611e-04</internalNodes>
          <leafValues>
            -3.3619651198387146e-01 5.4073888063430786e-01</leafValues></_>
        <_>
          <internalNodes>
            0 -1 155 -4.5087549369782209e-04</internalNodes>
          <leafValues>
            6.2560200691223145e-01 -2.3680625855922699e-01</leafValues></_></weakClassifiers></_>
    <!-- stage 4 -->
    <_>
      <maxWeakCount>7</maxWeakCount>
      <stageThreshold>-1.0647127628326416e+00</stageThreshold>
      <weakClassifiers>
        <_>
          <internalNodes>
            0 -1 131 -6.7777920048683882e-04</internalNodes>
          <leafValues>
            1.8518517911434174e-01 -6.5315318107604980e-01</leafValues></_>
        <_>
          <internalNodes>
            0 -1 107 -1.7328218382317573e-04</internalNodes>
          <leafValues>
            4.7773694992065430e-01 -3.3609348535537720e-01</leafValues></_>
        <_>
          <internalNodes>
            0 -1 63 -2.7174947899766266e-04</internalNodes>
          <leafValues>
            6.2908250093460083e-01 -2.0682421326637268e-01</leafValues></_>
        <_>
          <internalNodes>
            0 -1 135 8.3625176921486855e-04</internalNodes>
          <leafValues>
            -2.3331250250339508e-01 5.3841143846511841e-01</leafValues></_>
        <_>
          <internalNodes>
            0 -1 140 9.9476031027734280e-04</internalNodes>
          <leafValues>
            -2.0211391150951385e-01 6.7346811294555664e-01</leafValues></_>
        <_>
          <internalNodes>
            0 -1 96 1.4487192966043949e-03</internalNodes>
          <leafValues>
            -2.9227489233016968e-01 4.6800336241722107e-01</leafValues></_>
        <_>
          <internalNodes>
            0 -1 0 -5.8291945606470108e-04</internalNodes>
          <leafValues>
            -7.1504932641983032e-01 2.2576192021369934e-01</leafValues></_></weakClassifiers></_>
    <!-- stage 5 -->
    <_>
      <maxWeakCount>9</maxWeakCount>
      <stageThreshold>-8.7477672100067139e-01</stageThreshold>
      <weakClassifiers>
        <_>
          <internalNodes>
            0 -1 108 5.6748795323073864e-03</internalNodes>
          <leafValues>
            -6.0662525892257690e-01 4.2857143282890320e-01</leafValues></_>
        <_>
          <internalNodes>
            0 -1 74 -3.9637050940655172e-04</internalNodes>
          <leafValues>
            3.9004626870155334e-01 -3.3038792014122009e-01</leafValues></_>
        <_>
          <internalNodes>
            0 -1 170 -9.5566156232962385e-06</internalNodes>
          <leafValues>
            -4.7629177570343018e-01 2.7498278021812439e-01</leafValues></_>
        <_>
          <internalNodes>
            0 -1 24 3.9407499134540558e-02</internalNodes>
          <leafValues>
            -2.5782766938209534e-01 5.5077677965164185e-01</leafValues></_>
        <_>
          <internalNodes>
            0 -1 40 -1.5254062600433826e-03</internalNodes>
          <leafValues>
            3.8703343272209167e-01 -3.3970898389816284e-01</leafValues></_>
        <_>
          <internalNodes>
            0 -1 104 3.0200983019312844e-05</internalNodes>
          <leafValues>
            2.6128005981445313e-01 -6.3251197338104248e-01</leafValues></_>
        <_>
          <internalNodes>
            0 -1 122 -1.0180610115639865e-04</internalNodes>
          <leafValues>
            4.4429561495780945e-01 -3.5165780782699585e-01</leafValues></_>
        <_>
          <internalNodes>
            0 -1 134 4.8536989197600633e-05</internalNodes>
          <leafValues>
            1.7776946723461151e-01 -7.7518135309219360e-01</leafValues></_>
        <_>
          <internalNodes>
            0 -1 117 -1.4874950982630253e-02</internalNodes>
          <leafValues>
            5.6384557485580444e-01 -2.6603811979293823e-01</leafValues></_></weakClassifiers></_>
    <!-- stage 6 -->
    <_>
      <maxWeakCount>9</maxWeakCount>
      <stageThreshold>-9.4269663095474243e-01</stageThreshold>
      <weakClassifiers>
        <_>
          <internalNodes>
            0 -1 72 4.3477281928062439e-02</internalNodes>
          <leafValues>
            -5.7852882146835327e-01 7.2727274894714355e-01</leafValues></_>
        <_>
          <internalNodes>
            0 -1 15 -4.5740507630398497e-05</internalNodes>
          <leafValues>
            -6.8788284063339233e-01 1.2792979180812836e-01</leafValues></_>
        <_>
          <internalNodes>
            0 -1 132 7.1930424310266972e-03</internalNodes>
          <leafValues>
            -2.2877508401870728e-01 5.5652874708175659e-01</leafValues></_>
        <_>
          <internalNodes>
            0 -1 167 -2.7483791200211272e-05</internalNodes>
          <leafValues>
            -4.6574366092681885e-01 2.7241894602775574e-01</leafValues></_>
        <_>
          <internalNodes>
            0 -1 9 2.4243199732154608e-05</internalNodes>
          <leafValues>
            2.2043879330158234e-01 -5.7028412818908691e-01</leafValues></_>
        <_>
          <internalNodes>
            0 -1 148 -1.4874176122248173e-03</internalNodes>
          <leafValues>
            4.7824084758758545e-01 -2.5806406140327454e-01</leafValues></_>
        <_>
          <internalNodes>
            0 -1 175 -7.2379258926957846e-04</internalNodes>
          <leafValues>
            -8.2290047407150269e-01 1.4815855026245117e-01</leafValues></_>
        <_>
          <internalNodes>
            0 -1 92 -1.8031960353255272e-03</internalNodes>
          <leafValues>
            4.4277104735374451e-01 -3.0053812265396118e-01</leafValues></_>
        <_>
          <internalNodes>
            0 -1 159 -1.9813920371234417e-03</internalNodes>
          <leafValues>
            5.4869365692138672e-01 -2.6622888445854187e-01</leafValues></_></weakClassifiers></_>
    <!-- stage 7 -->
    <_>
      <maxWeakCount>8</maxWeakCount>
      <stageThreshold>-6.8468147516250610e-01</stageThreshold>
      <weakClassifiers>
        <_>
          <internalNodes>
            0 -1 38 4.8718269914388657e-02</internalNodes>
          <leafValues>
            -6.1822128295898438e-01 1.5625000000000000e-01</leafValues></_>
        <_>
          <internalNodes>
            0 -1 12 -1.4818752184510231e-02</internalNodes>
          <leafValues>
            5.9782499074935913e-01 -2.6012966036796570e-01</leafValues></_>
        <_>
          <internalNodes>
            0 -1 1 1.0118198115378618e-03</internalNodes>
          <leafValues>
            1.2686869502067566e-01 -9.0508049726486206e-01</leafValues></_>
        <_>
          <internalNodes>
            0 -1 52 -7.8055234625935555e-03</internalNodes>
          <leafValues>
            5.5642807483673096e-01 -1.8897667527198792e-01</leafValues></_>
        <_>
          <internalNodes>
            0 -1 10 1.7402887344360352e-02</internalNodes>
          <leafValues>
            -1.8780407309532166e-01 6.1657309532165527e-01</leafValues></_>
        <_>
          <internalNodes>
            0 -1 173 -3.7035637069493532e-04</internalNodes>
          <leafValues>
            -5.8589863777160645e-01 1.9069911539554596e-01</leafValues></_>
        <_>
          <internalNodes>
            0 -1 57 -3.1265178695321083e-03</internalNodes>
          <leafValues>
            4.9402779340744019e-01 -2.4418076872825623e-01</leafValues></_>
        <_>
          <internalNodes>
            0 -1 45 -9.9394726566970348e-04</internalNodes>
          <leafValues>
            5.2825617790222168e-01 -1.9694156944751740e-01</leafValues></_></weakClassifiers></_>
    <!-- stage 8 -->
    <_>
      <maxWeakCount>8</maxWeakCount>
      <stageThreshold>-1.0693422555923462e+00</stageThreshold>
      <weakClassifiers>
        <_>
          <internalNodes>
            0 -1 145 -3.2714381814002991e-02</internalNodes>
          <leafValues>
            8.3333331346511841e-01 -5.8882236480712891e-01</leafValues></_>
        <_>
          <internalNodes>
            0 -1 37 -1.0870451480150223e-01</internalNodes>
          <leafValues>
            5.8745557069778442e-01 -2.4396996200084686e-01</leafValues></_>
        <_>
          <internalNodes>
            0 -1 30 -1.5451476792804897e-04</internalNodes>
          <leafValues>
            -5.0689691305160522e-01 2.2084008157253265e-01</leafValues></_>
        <_>
          <internalNodes>
            0 -1 78 3.5515967756509781e-03</internalNodes>
          <leafValues>
            -2.5717848539352417e-01 4.1979536414146423e-01</leafValues></_>
        <_>
          <internalNodes>
            0 -1 166 2.7563142793951556e-05</internalNodes>
          <leafValues>
            2.6253885030746460e-01 -4.4470968842506409e-01</leafValues></_>
        <_>
          <internalNodes>
            0 -1 2 -1.9328380003571510e-03</internalNodes>
          <leafValues>
            -7.3123711347579956e-01 1.8596740067005157e-01</leafValues></_>
        <_>
          <internalNodes>
            0 -1 90 -4.8061826964840293e-04</internalNodes>
          <leafValues>
            5.3293889760971069e-01 -2.2988060116767883e-01</leafValues></_>
        <_>
          <internalNodes>
            0 -1 88 4.9396287067793310e-05</internalNodes>
          <leafValues>
            -3.6807405948638916e-01 3.3670574426651001e-01</leafValues></_></weakClassifiers></_>
    <!-- stage 9 -->
    <_>
      <maxWeakCount>11</maxWeakCount>
      <stageThreshold>-1.2712433338165283e+00</stageThreshold>
      <weakClassifiers>
        <_>
          <internalNodes>
            0 -1 34 4.9021720886230469e-02</internalNodes>
          <leafValues>
            -6.0330575704574585e-01 4.1463413834571838e-01</leafValues></_>
        <_>
          <internalNodes>
            0 -1 48 -7.9641547054052353e-03</internalNodes>
          <leafValues>
            5.4854208230972290e-01 -2.5903967022895813e-01</leafValues></_>
        <_>
          <internalNodes>
            0 -1 95 6.7318353103473783e-05</internalNodes>
          <leafValues>
            1.6704382002353668e-01 -7.3249167203903198e-01</leafValues></_>
        <_>
          <internalNodes>
            0 -1 22 -5.7484860008116812e-05</internalNodes>
          <leafValues>
            -4.5549815893173218e-01 2.3414443433284760e-01</leafValues></_>
        <_>
          <internalNodes>
            0 -1 182 1.3613566989079118e-04</internalNodes>
          <leafValues>
            1.5993618965148926e-01 -7.1819722652435303e-01</leafValues></_>
        <_>
          <internalNodes>
            0 -1 137 -1.0012009879574180e-03</internalNodes>
          <leafValues>
            4.4135415554046631e-01 -2.4266457557678223e-01</leafValues></_>
        <_>
          <internalNodes>
            0 -1 149 9.0798400342464447e-03</internalNodes>
          <leafValues>
            -2.1903170645236969e-01 5.8598428964614868e-01</leafValues></_>
        <_>
          <internalNodes>
            0 -1 115 1.3900331396143883e-05</internalNodes>
          <leafValues>
            2.1805231273174286e-01 -5.9082841873168945e-01</leafValues></_>
        <_>
          <internalNodes>
            0 -1 179 6.2934792367741466e-05</internalNodes>
          <leafValues>
            2.2997693717479706e-01 -5.3604644536972046e-01</leafValues></_>
        <_>
          <internalNodes>
            0 -1 178 3.9658953028265387e-05</internalNodes>
          <leafValues>
            2.4510183930397034e-01 -4.7480809688568115e-01</leafValues></_>
        <_>
          <internalNodes>
            0 -1 36 -5.1063537830486894e-04</internalNodes>
          <leafValues>
            5.2307742834091187e-01 -2.4131904542446136e-01</leafValues></_></weakClassifiers></_>
    <!-- stage 10 -->
    <_>
      <maxWeakCount>10</maxWeakCount>
      <stageThreshold>-8.9495104551315308e-01</stageThreshold>
      <weakClassifiers>
        <_>
          <internalNodes>
            0 -1 120 1.8622297793626785e-03</internalNodes>
          <leafValues>
            -6.6746985912322998e-01 1.8181817606091499e-02</leafValues></_>
        <_>
          <internalNodes>
            0 -1 91 1.6540919023100287e-04</internalNodes>
          <leafValues>
            -3.5415893793106079e-01 2.4762403964996338e-01</leafValues></_>
        <_>
          <internalNodes>
            0 -1 19 -7.0718509959988296e-05</internalNodes>
          <leafValues>
            -4.9551910161972046e-01 1.8070496618747711e-01</leafValues></_>
        <_>
          <internalNodes>
            0 -1 150 1.2898241402581334e-04</internalNodes>
          <leafValues>
            -2.8333088755607605e-01 3.5191041231155396e-01</leafValues></_>
        <_>
          <internalNodes>
            0 -1 42 -2.6921485550701618e-03</internalNodes>
          <leafValues>
            5.1213341951370239e-01 -1.6645057499408722e-01</leafValues></_>
        <_>
          <internalNodes>
            0 -1 129 1.3461153721436858e-03</internalNodes>
          <leafValues>
            -1.9872398674488068e-01 5.2589923143386841e-01</leafValues></_>
        <_>
          <internalNodes>
            0 -1 31 -4.4069616124033928e-03</internalNodes>
          <leafValues>
            4.7896137833595276e-01 -2.2830565273761749e-01</leafValues></_>
        <_>
          <internalNodes>
            0 -1 60 1.8610374536365271e-04</internalNodes>
          <leafValues>
            2.7453815937042236e-01 -4.1763237118721008e-01</leafValues></_>
        <_>
          <internalNodes>
            0 -1 32 -5.7288707466796041e-05</internalNodes>
          <leafValues>
            -3.9140614867210388e-01 3.0977031588554382e-01</leafValues></_>
        <_>
          <internalNodes>
            0 -1 35 -2.3568547330796719e-03</internalNodes>
          <leafValues>
            3.6375519633293152e-01 -2.9911398887634277e-01</leafValues></_></weakClassifiers></_>
    <!-- stage 11 -->
    <_>
      <maxWeakCount>9</maxWeakCount>
      <stageThreshold>-9.4576412439346313e-01</stageThreshold>
      <weakClassifiers>
        <_>
          <internalNodes>
            0 -1 7 2.6213985681533813e-01</internalNodes>
          <leafValues>
            -5.7227724790573120e-01 6.9999998807907104e-01</leafValues></_>
        <_>
          <internalNodes>
            0 -1 8 -1.7432708409614861e-04</internalNodes>
          <leafValues>
            -7.3821777105331421e-01 6.2719866633415222e-02</leafValues></_>
        <_>
          <internalNodes>
            0 -1 11 -3.2516673672944307e-03</internalNodes>
          <leafValues>
            -6.9798851013183594e-01 1.3692305982112885e-01</leafValues></_>
        <_>
          <internalNodes>
            0 -1 71 6.0987062170170248e-05</internalNodes>
          <leafValues>
            -2.5446915626525879e-01 3.7108266353607178e-01</leafValues></_>
        <_>
          <internalNodes>
            0 -1 100 -2.7659456245601177e-03</internalNodes>
          <leafValues>
            5.2394372224807739e-01 -1.8502779304981232e-01</leafValues></_>
        <_>
          <internalNodes>
            0 -1 17 6.7296030465513468e-05</internalNodes>
          <leafValues>
            1.9341050088405609e-01 -6.7789828777313232e-01</leafValues></_>
        <_>
          <internalNodes>
            0 -1 79 2.7029520879295887e-06</internalNodes>
          <leafValues>
            -4.1182652115821838e-01 2.2276996076107025e-01</leafValues></_>
        <_>
          <internalNodes>
            0 -1 61 -3.4985167440026999e-04</internalNodes>
          <leafValues>
            5.1406985521316528e-01 -1.9933862984180450e-01</leafValues></_>
        <_>
          <internalNodes>
            0 -1 123 6.6219661675859243e-05</internalNodes>
          <leafValues>
            -1.9257439672946930e-01 5.7962793111801147e-01</leafValues></_></weakClassifiers></_>
    <!-- stage 12 -->
    <_>
      <maxWeakCount>12</maxWeakCount>
      <stageThreshold>-1.3315154314041138e+00</stageThreshold>
      <weakClassifiers>
        <_>
          <internalNodes>
            0 -1 130 -1.1202062666416168e-01</internalNodes>
          <leafValues>
            6.9999998807907104e-01 -5.7227724790573120e-01</leafValues></_>
        <_>
          <internalNodes>
            0 -1 158 -4.6337360981851816e-04</internalNodes>
          <leafValues>
            -8.2776719331741333e-01 3.4669630229473114e-02</leafValues></_>
        <_>
          <internalNodes>
            0 -1 157 -2.8056075097993016e-04</internalNodes>
          <leafValues>
            -6.5646529197692871e-01 1.2191157788038254e-01</leafValues></_>
        <_>
          <internalNodes>
            0 -1 54 2.4409521371126175e-02</internalNodes>
          <leafValues>
            -1.8439769744873047e-01 4.9911344051361084e-01</leafValues></_>
        <_>
          <internalNodes>
            0 -1 33 -4.4804564822698012e-05</internalNodes>
          <leafValues>
            3.5653230547904968e-01 -2.6921746134757996e-01</leafValues></_>
        <_>
          <internalNodes>
            0 -1 113 8.6460262537002563e-05</internalNodes>
          <leafValues>
            -2.7082854509353638e-01 3.5555076599121094e-01</leafValues></_>
        <_>
          <internalNodes>
            0 -1 171 2.5101960636675358e-04</internalNodes>
          <leafValues>
            2.3296713829040527e-01 -4.4679799675941467e-01</leafValues></_>
        <_>
          <internalNodes>
            0 -1 161 5.6118646170943975e-04</internalNodes>
          <leafValues>
            -2.2619663178920746e-01 4.4124758243560791e-01</leafValues></_>
        <_>
          <internalNodes>
            0 -1 66 1.3215019134804606e-04</internalNodes>
          <leafValues>
            -2.0479519665241241e-01 4.6233376860618591e-01</leafValues></_>
        <_>
          <internalNodes>
            0 -1 6 -4.4879689812660217e-04</internalNodes>
          <leafValues>
            -4.3282499909400940e-01 2.4630235135555267e-01</leafValues></_>
        <_>
          <internalNodes>
            0 -1 59 3.1581093207933009e-04</internalNodes>
          <leafValues>
            -2.8399157524108887e-01 3.4348723292350769e-01</leafValues></_>
        <_>
          <internalNodes>
            0 -1 94 1.0703702719183639e-04</internalNodes>
          <leafValues>
            9.7723983228206635e-02 -9.7339296340942383e-01</leafValues></_></weakClassifiers></_>
    <!-- stage 13 -->
    <_>
      <maxWeakCount>12</maxWeakCount>
      <stageThreshold>-1.3455471992492676e+00</stageThreshold>
      <weakClassifiers>
        <_>
          <internalNodes>
            0 -1 110 -8.7851118296384811e-03</internalNodes>
          <leafValues>
            1. -5.5642020702362061e-01</leafValues></_>
        <_>
          <internalNodes>
            0 -1 46 -2.0187221467494965e-02</internalNodes>
          <leafValues>
            -5.0825625658035278e-01 1.1471839249134064e-01</leafValues></_>
        <_>
          <internalNodes>
            0 -1 102 -7.7976117609068751e-05</internalNodes>
          <leafValues>
            4.6176087856292725e-01 -1.9464561343193054e-01</leafValues></_>
        <_>
          <internalNodes>
            0 -1 184 5.2782805869355798e-04</internalNodes>
          <leafValues>
            1.3211739063262939e-01 -7.6008462905883789e-01</leafValues></_>
        <_>
          <internalNodes>
            0 -1 56 -7.3939276626333594e-04</internalNodes>
          <leafValues>
            3.4363159537315369e-01 -2.7718544006347656e-01</leafValues></_>
        <_>
          <internalNodes>
            0 -1 124 6.5340357832610607e-04</internalNodes>
          <leafValues>
            1.0661227256059647e-01 -7.9719167947769165e-01</leafValues></_>
        <_>
          <internalNodes>
            0 -1 65 7.6542884926311672e-05</internalNodes>
          <leafValues>
            -2.9749205708503723e-01 3.2469990849494934e-01</leafValues></_>
        <_>
          <internalNodes>
            0 -1 80 1.9872602075338364e-02</internalNodes>
          <leafValues>
            1.4298994839191437e-01 -8.0420148372650146e-01</leafValues></_>
        <_>
          <internalNodes>
            0 -1 141 3.6210200050845742e-04</internalNodes>
          <leafValues>
            -2.6884916424751282e-01 3.7070810794830322e-01</leafValues></_>
        <_>
          <internalNodes>
            0 -1 55 -8.2993367686867714e-04</internalNodes>
          <leafValues>
            4.2956432700157166e-01 -2.5502911210060120e-01</leafValues></_>
        <_>
          <internalNodes>
            0 -1 14 -2.9956036087241955e-06</internalNodes>
          <leafValues>
            -3.8407489657402039e-01 2.7077716588973999e-01</leafValues></_>
        <_>
          <internalNodes>
            0 -1 25 1.6538416093681008e-04</internalNodes>
          <leafValues>
            -2.4784596264362335e-01 4.8558872938156128e-01</leafValues></_></weakClassifiers></_>
    <!-- stage 14 -->
    <_>
      <maxWeakCount>10</maxWeakCount>
      <stageThreshold>-9.6743297576904297e-01</stageThreshold>
      <weakClassifiers>
        <_>
          <internalNodes>
            0 -1 26 2.3528482764959335e-02</internalNodes>
          <leafValues>
            -6.0944205522537231e-01 1.5254236757755280e-01</leafValues></_>
        <_>
          <internalNodes>
            0 -1 99 4.2778202332556248e-03</internalNodes>
          <leafValues>
            -2.7990260720252991e-01 3.3044350147247314e-01</leafValues></_>
        <_>
          <internalNodes>
            0 -1 172 -3.3621251350268722e-04</internalNodes>
          <leafValues>
            -1. 8.3444036543369293e-02</leafValues></_>
        <_>
          <internalNodes>
            0 -1 58 -1.5026520122773945e-04</internalNodes>
          <leafValues>
            4.2153087258338928e-01 -2.1305818855762482e-01</leafValues></_>
        <_>
          <internalNodes>
            0 -1 133 7.8305769420694560e-05</internalNodes>
          <leafValues>
            -2.5011563301086426e-01 3.8164290785789490e-01</leafValues></_>
        <_>
          <internalNodes>
            0 -1 142 -1.6120012151077390e-03</internalNodes>
          <leafValues>
            3.3250501751899719e-01 -3.1444546580314636e-01</leafValues></_>
        <_>
          <internalNodes>
            0 -1 112 -4.8266891099046916e-05</internalNodes>
          <leafValues>
            4.3305706977844238e-01 -2.2842118144035339e-01</leafValues></_>
        <_>
          <internalNodes>
            0 -1 18 4.8683701606933028e-05</internalNodes>
          <leafValues>
            2.4048963189125061e-01 -4.3090298771858215e-01</leafValues></_>
        <_>
          <internalNodes>
            0 -1 87 2.1663092411472462e-05</internalNodes>
          <leafValues>
            -2.9008284211158752e-01 3.5106101632118225e-01</leafValues></_>
        <_>
          <internalNodes>
            0 -1 23 7.1012298576533794e-04</internalNodes>
          <leafValues>
            -3.2058507204055786e-01 3.6569935083389282e-01</leafValues></_></weakClassifiers></_>
    <!-- stage 15 -->
    <_>
      <maxWeakCount>12</maxWeakCount>
      <stageThreshold>-1.1912678480148315e+00</stageThreshold>
      <weakClassifiers>
        <_>
          <internalNodes>
            0 -1 75 1.1113101243972778e-01</internalNodes>
          <leafValues>
            -5.9183675050735474e-01 4.2857143282890320e-01</leafValues></_>
        <_>
          <internalNodes>
            0 -1 21 6.1697280034422874e-04</internalNodes>
          <leafValues>
            5.9989225119352341e-02 -7.2767239809036255e-01</leafValues></_>
        <_>
          <internalNodes>
            0 -1 82 1.3993917673360556e-04</internalNodes>
          <leafValues>
            -1.6346466541290283e-01 5.8603262901306152e-01</leafValues></_>
        <_>
          <internalNodes>
            0 -1 89 -4.6811846550554037e-04</internalNodes>
          <leafValues>
            3.8569012284278870e-01 -2.4677070975303650e-01</leafValues></_>
        <_>
          <internalNodes>
            0 -1 183 1.3572188436228316e-05</internalNodes>
          <leafValues>
            2.5221621990203857e-01 -3.8556560873985291e-01</leafValues></_>
        <_>
          <internalNodes>
            0 -1 160 7.1641610702499747e-05</internalNodes>
          <leafValues>
            2.8294220566749573e-01 -3.4271776676177979e-01</leafValues></_>
        <_>
          <internalNodes>
            0 -1 39 1.4400608051801100e-05</internalNodes>
          <leafValues>
            2.4160279333591461e-01 -3.8515484333038330e-01</leafValues></_>
        <_>
          <internalNodes>
            0 -1 143 -4.4855178202851675e-06</internalNodes>
          <leafValues>
            -3.4983780980110168e-01 3.2335838675498962e-01</leafValues></_>
        <_>
          <internalNodes>
            0 -1 181 -2.2623455151915550e-04</internalNodes>
          <leafValues>
            -6.8518626689910889e-01 1.5190221369266510e-01</leafValues></_>
        <_>
          <internalNodes>
            0 -1 156 -1.9968664273619652e-02</internalNodes>
          <leafValues>
            5.7038307189941406e-01 -2.0417037606239319e-01</leafValues></_>
        <_>
          <internalNodes>
            0 -1 144 9.6275412943214178e-05</internalNodes>
          <leafValues>
            -2.7299499511718750e-01 3.7399622797966003e-01</leafValues></_>
        <_>
          <internalNodes>
            0 -1 126 -1.0134398937225342e-02</internalNodes>
          <leafValues>
            4.5082885026931763e-01 -2.4683731794357300e-01</leafValues></_></weakClassifiers></_>
    <!-- stage 16 -->
    <_>
      <maxWeakCount>10</maxWeakCount>
      <stageThreshold>-1.0395128726959229e+00</stageThreshold>
      <weakClassifiers>
        <_>
          <internalNodes>
            0 -1 41 2.5114974007010460e-02</internalNodes>
          <leafValues>
            -6.1333334445953369e-01 1.3333333656191826e-02</leafValues></_>
        <_>
          <internalNodes>
            0 -1 70 -1.9559349864721298e-02</internalNodes>
          <leafValues>
            6.1173456907272339e-01 -2.0424729585647583e-01</leafValues></_>
        <_>
          <internalNodes>
            0 -1 154 -9.3657334218733013e-05</internalNodes>
          <leafValues>
            3.1545445322990417e-01 -2.8529119491577148e-01</leafValues></_>
        <_>
          <internalNodes>
            0 -1 151 3.3870579500216991e-05</internalNodes>
          <leafValues>
            -3.2445290684700012e-01 2.6434826850891113e-01</leafValues></_>
        <_>
          <internalNodes>
            0 -1 125 -6.3745921943336725e-04</internalNodes>
          <leafValues>
            3.5975727438926697e-01 -2.4949659407138824e-01</leafValues></_>
        <_>
          <internalNodes>
            0 -1 146 -3.6160943564027548e-03</internalNodes>
          <leafValues>
            -7.5004106760025024e-01 1.4302644133567810e-01</leafValues></_>
        <_>
          <internalNodes>
            0 -1 28 -7.1343011222779751e-04</internalNodes>
          <leafValues>
            2.8800112009048462e-01 -3.0654338002204895e-01</leafValues></_>
        <_>
          <internalNodes>
            0 -1 83 2.7564761694520712e-04</internalNodes>
          <leafValues>
            -1.7760522663593292e-01 4.9789780378341675e-01</leafValues></_>
        <_>
          <internalNodes>
            0 -1 169 -9.6737043350003660e-05</internalNodes>
          <leafValues>
            -4.6452870965003967e-01 2.0669463276863098e-01</leafValues></_>
        <_>
          <internalNodes>
            0 -1 168 1.3507685798685998e-04</internalNodes>
          <leafValues>
            3.0410408973693848e-01 -3.6705303192138672e-01</leafValues></_></weakClassifiers></_>
    <!-- stage 17 -->
    <_>
      <maxWeakCount>11</maxWeakCount>
      <stageThreshold>-1.1445468664169312e+00</stageThreshold>
      <weakClassifiers>
        <_>
          <internalNodes>
            0 -1 69 1.0318109765648842e-02</internalNodes>
          <leafValues>
            -6.3033175468444824e-01 -8.7378643453121185e-02</leafValues></_>
        <_>
          <internalNodes>
            0 -1 44 -1.5075255942065269e-04</internalNodes>
          <leafValues>
            -7.5322097539901733e-01 3.5222321748733521e-02</leafValues></_>
        <_>
          <internalNodes>
            0 -1 73 -2.7808593586087227e-04</internalNodes>
          <leafValues>
            -8.0539709329605103e-01 7.9509489238262177e-02</leafValues></_>
        <_>
          <internalNodes>
            0 -1 77 -2.7082450687885284e-03</internalNodes>
          <leafValues>
            5.7905864715576172e-01 -1.3780495524406433e-01</leafValues></_>
        <_>
          <internalNodes>
            0 -1 93 1.0260714043397456e-04</internalNodes>
          <leafValues>
            -2.3063747584819794e-01 4.1313996911048889e-01</leafValues></_>
        <_>
          <internalNodes>
            0 -1 62 2.6108926249435171e-05</internalNodes>
          <leafValues>
            -2.0473669469356537e-01 3.9418244361877441e-01</leafValues></_>
        <_>
          <internalNodes>
            0 -1 121 1.3421452604234219e-03</internalNodes>
          <leafValues>
            1.3409461081027985e-01 -6.8129956722259521e-01</leafValues></_>
        <_>
          <internalNodes>
            0 -1 84 1.4411911251954734e-05</internalNodes>
          <leafValues>
            -3.0497017502784729e-01 3.2186248898506165e-01</leafValues></_>
        <_>
          <internalNodes>
            0 -1 50 1.4773986185900867e-04</internalNodes>
          <leafValues>
            -2.6416000723838806e-01 3.5301628708839417e-01</leafValues></_>
        <_>
          <internalNodes>
            0 -1 163 3.5622011637315154e-05</internalNodes>
          <leafValues>
            2.4250225722789764e-01 -4.0479046106338501e-01</leafValues></_>
        <_>
          <internalNodes>
            0 -1 139 1.3086851686239243e-04</internalNodes>
          <leafValues>
            -2.7359214425086975e-01 3.6167880892753601e-01</leafValues></_></weakClassifiers></_>
    <!-- stage 18 -->
    <_>
      <maxWeakCount>11</maxWeakCount>
      <stageThreshold>-1.0571635961532593e+00</stageThreshold>
      <weakClassifiers>
        <_>
          <internalNodes>
            0 -1 136 5.3425813093781471e-03</internalNodes>
          <leafValues>
            -5.8691203594207764e-01 3.3333334326744080e-01</leafValues></_>
        <_>
          <internalNodes>
            0 -1 20 -3.9297502487897873e-02</internalNodes>
          <leafValues>
            5.5135428905487061e-01 -1.8858174979686737e-01</leafValues></_>
        <_>
          <internalNodes>
            0 -1 85 7.4119737837463617e-04</internalNodes>
          <leafValues>
            -1.2784712016582489e-01 5.8894830942153931e-01</leafValues></_>
        <_>
          <internalNodes>
            0 -1 105 9.9212885834276676e-04</internalNodes>
          <leafValues>
            -1.3341085612773895e-01 5.4952353239059448e-01</leafValues></_>
        <_>
          <internalNodes>
            0 -1 5 -8.2744169048964977e-04</internalNodes>
          <leafValues>
            -5.2870428562164307e-01 1.7100466787815094e-01</leafValues></_>
        <_>
          <internalNodes>
            0 -1 3 7.3613161221146584e-03</internalNodes>
          <leafValues>
            -8.5913404822349548e-02 7.1755522489547729e-01</leafValues></_>
        <_>
          <internalNodes>
            0 -1 43 5.4279668256640434e-04</internalNodes>
          <leafValues>
            -2.3450820147991180e-01 3.7560424208641052e-01</leafValues></_>
        <_>
          <internalNodes>
            0 -1 138 -1.6836574068292975e-03</internalNodes>
          <leafValues>
            -6.9688636064529419e-01 1.3553373515605927e-01</leafValues></_>
        <_>
          <internalNodes>
            0 -1 118 -1.7160975403385237e-05</internalNodes>
          <leafValues>
            3.2209709286689758e-01 -3.0472913384437561e-01</leafValues></_>
        <_>
          <internalNodes>
            0 -1 27 4.9685087287798524e-04</internalNodes>
          <leafValues>
            -2.6735839247703552e-01 3.4611761569976807e-01</leafValues></_>
        <_>
          <internalNodes>
            0 -1 147 2.3379249614663422e-04</internalNodes>
          <leafValues>
            1.6104027628898621e-01 -5.9653693437576294e-01</leafValues></_></weakClassifiers></_>
    <!-- stage 19 -->
    <_>
      <maxWeakCount>11</maxWeakCount>
      <stageThreshold>-1.1424249410629272e+00</stageThreshold>
      <weakClassifiers>
        <_>
          <internalNodes>
            0 -1 76 -3.2078733202069998e-03</internalNodes>
          <leafValues>
            5.4545456171035767e-01 -5.7057654857635498e-01</leafValues></_>
        <_>
          <internalNodes>
            0 -1 174 -2.1125299554114463e-06</internalNodes>
          <leafValues>
            2.4064707756042480e-01 -3.3853656053543091e-01</leafValues></_>
        <_>
          <internalNodes>
            0 -1 13 -2.6854591851588339e-05</internalNodes>
          <leafValues>
            -6.7594790458679199e-01 1.1058118194341660e-01</leafValues></_>
        <_>
          <internalNodes>
            0 -1 165 -3.6907952744513750e-04</internalNodes>
          <leafValues>
            3.8250917196273804e-01 -1.9285443425178528e-01</leafValues></_>
        <_>
          <internalNodes>
            0 -1 109 2.0207650959491730e-04</internalNodes>
          <leafValues>
            -2.3576433956623077e-01 3.8853979110717773e-01</leafValues></_>
        <_>
          <internalNodes>
            0 -1 49 3.1603965453541605e-06</internalNodes>
          <leafValues>
            -3.1247365474700928e-01 3.0249610543251038e-01</leafValues></_>
        <_>
          <internalNodes>
            0 -1 29 7.0962794125080109e-03</internalNodes>
          <leafValues>
            -3.2509285211563110e-01 2.7973136305809021e-01</leafValues></_>
        <_>
          <internalNodes>
            0 -1 177 -6.1833161453250796e-05</internalNodes>
          <leafValues>
            -5.7219225168228149e-01 1.7667703330516815e-01</leafValues></_>
        <_>
          <internalNodes>
            0 -1 97 -3.9683124050498009e-03</internalNodes>
          <leafValues>
            5.7469391822814941e-01 -1.8781264126300812e-01</leafValues></_>
        <_>
          <internalNodes>
            0 -1 53 -3.1635470688343048e-02</internalNodes>
          <leafValues>
            7.0649409294128418e-01 -1.2879535555839539e-01</leafValues></_>
        <_>
          <internalNodes>
            0 -1 162 7.0186739321798086e-04</internalNodes>
          <leafValues>
            2.9962441325187683e-01 -3.4126457571983337e-01</leafValues></_></weakClassifiers></_></stages>
  <features>
    <_>
      <rects>
        <_>
          0 3 3 32 -1.</_>
        <_>
          1 3 1 32 3.</_></rects>
      <tilted>0</tilted></_>
    <_>
      <rects>
        <_>
          0 11 3 19 -1.</_>
        <_>
          1 11 1 19 3.</_></rects>
      <tilted>0</tilted></_>
    <_>
      <rects>
        <_>
          0 25 20 6 -1.</_>
        <_>
          0 27 20 2 3.</_></rects>
      <tilted>0</tilted></_>
    <_>
      <rects>
        <_>
          0 28 42 1 -1.</_>
        <_>
          21 28 21 1 2.</_></rects>
      <tilted>0</tilted></_>
    <_>
      <rects>
        <_>
          0 36 44 8 -1.</_>
        <_>
          0 36 22 4 2.</_>
        <_>
          22 40 22 4 2.</_></rects>
      <tilted>0</tilted></_>
    <_>
      <rects>
        <_>
          0 42 12 3 -1.</_>
        <_>
          4 42 4 3 3.</_></rects>
      <tilted>0</tilted></_>
    <_>
      <rects>
        <_>
          0 44 10 4 -1.</_>
        <_>
          5 44 5 4 2.</_></rects>
      <tilted>0</tilted></_>
    <_>
      <rects>
        <_>
          1 6 60 19 -1.</_>
        <_>
          21 6 20 19 3.</_></rects>
      <tilted>0</tilted></_>
    <_>
      <rects>
        <_>
          1 10 1 6 -1.</_>
        <_>
          1 12 1 2 3.</_></rects>
      <tilted>0</tilted></_>
    <_>
      <rects>
        <_>
          1 12 2 4 -1.</_>
        <_>
          1 12 1 2 2.</_>
        <_>
          2 14 1 2 2.</_></rects>
      <tilted>0</tilted></_>
    <_>
      <rects>
        <_>
          1 26 40 12 -1.</_>
        <_>
          1 26 20 6 2.</_>
        <_>
          21 32 20 6 2.</_></rects>
      <tilted>0</tilted></_>
    <_>
      <rects>
        <_>
          1 28 24 4 -1.</_>
        <_>
          1 30 24 2 2.</_></rects>
      <tilted>0</tilted></_>
    <_>
      <rects>
        <_>
          2 0 26 12 -1.</_>
        <_>
          2 0 13 6 2.</_>
        <_>
          15 6 13 6 2.</_></rects>
      <tilted>0</tilted></_>
    <_>
      <rects>
        <_>
          2 1 2 2 -1.</_>
        <_>
          2 1 1 1 2.</_>
        <_>
          3 2 1 1 2.</_></rects>
      <tilted>0</tilted></_>
    <_>
      <rects>
        <_>
          2 7 6 2 -1.</_>
        <_>
          4 7 2 2 3.</_></rects>
      <tilted>0</tilted></_>
    <_>
      <rects>
        <_>
          2 12 2 3 -1.</_>
        <_>
          2 13 2 1 3.</_></rects>
      <tilted>0</tilted></_>
    <_>
      <rects>
        <_>
          2 13 33 4 -1.</_>
        <_>
          2 15 33 2 2.</_></rects>
      <tilted>0</tilted></_>
    <_>
      <rects>
        <_>
          2 17 2 4 -1.</_>
        <_>
          2 17 1 2 2.</_>
        <_>
          3 19 1 2 2.</_></rects>
      <tilted>0</tilted></_>
    <_>
      <rects>
        <_>
          2 20 3 2 -1.</_>
        <_>
          2 21 3 1 2.</_></rects>
      <tilted>0</tilted></_>
    <_>
      <rects>
        <_>
          2 30 3 5 -1.</_>
        <_>
          3 30 1 5 3.</_></rects>
      <tilted>0</tilted></_>
    <_>
      <rects>
        <_>
          3 8 18 20 -1.</_>
        <_>
          12 8 9 20 2.</_></rects>
      <tilted>0</tilted></_>
    <_>
      <rects>
        <_>
          4 9 3 6 -1.</_>
        <_>
          4 11 3 2 3.</_></rects>
      <tilted>0</tilted></_>
    <_>
      <rects>
        <_>
          4 9 10 2 -1.</_>
        <_>
          9 9 5 2 2.</_></rects>
      <tilted>0</tilted></_>
    <_>
      <rects>
        <_>
          4 9 20 6 -1.</_>
        <_>
          4 11 20 2 3.</_></rects>
      <tilted>0</tilted></_>
    <_>
      <rects>
        <_>
          4 22 33 14 -1.</_>
        <_>
          15 22 11 14 3.</_></rects>
      <tilted>0</tilted></_>
    <_>
      <rects>
        <_>
          4 24 7 2 -1.</_>
        <_>
          4 25 7 1 2.</_></rects>
      <tilted>0</tilted></_>
    <_>
      <rects>
        <_>
          4 24 18 9 -1.</_>
        <_>
          13 24 9 9 2.</_></rects>
      <tilted>0</tilted></_>
    <_>
      <rects>
        <_>
          4 36 14 6 -1.</_>
        <_>
          4 36 7 3 2.</_>
        <_>
          11 39 7 3 2.</_></rects>
      <tilted>0</tilted></_>
    <_>
      <rects>
        <_>
          5 25 48 2 -1.</_>
        <_>
          5 25 24 1 2.</_>
        <_>
          29 26 24 1 2.</_></rects>
      <tilted>0</tilted></_>
    <_>
      <rects>
        <_>
          5 28 34 20 -1.</_>
        <_>
          5 28 17 10 2.</_>
        <_>
          22 38 17 10 2.</_></rects>
      <tilted>0</tilted></_>
    <_>
      <rects>
        <_>
          6 1 12 2 -1.</_>
        <_>
          6 1 6 1 2.</_>
        <_>
          12 2 6 1 2.</_></rects>
      <tilted>0</tilted></_>
    <_>
      <rects>
        <_>
          6 4 24 6 -1.</_>
        <_>
          6 7 24 3 2.</_></rects>
      <tilted>0</tilted></_>
    <_>
      <rects>
        <_>
          6 17 4 24 -1.</_>
        <_>
          8 17 2 24 2.</_></rects>
      <tilted>0</tilted></_>
    <_>
      <rects>
        <_>
          7 7 10 4 -1.</_>
        <_>
          7 9 10 2 2.</_></rects>
      <tilted>0</tilted></_>
    <_>
      <rects>
        <_>
          7 9 18 34 -1.</_>
        <_>
          13 9 6 34 3.</_></rects>
      <tilted>0</tilted></_>
    <_>
      <rects>
        <_>
          7 13 55 6 -1.</_>
        <_>
          7 15 55 2 3.</_></rects>
      <tilted>0</tilted></_>
    <_>
      <rects>
        <_>
          7 18 20 2 -1.</_>
        <_>
          7 18 10 1 2.</_>
        <_>
          17 19 10 1 2.</_></rects>
      <tilted>0</tilted></_>
    <_>
      <rects>
        <_>
          7 32 51 12 -1.</_>
        <_>
          24 32 17 12 3.</_></rects>
      <tilted>0</tilted></_>
    <_>
      <rects>
        <_>
          8 0 42 12 -1.</_>
        <_>
          8 6 42 6 2.</_></rects>
      <tilted>0</tilted></_>
    <_>
      <rects>
        <_>
          8 19 6 1 -1.</_>
        <_>
          10 19 2 1 3.</_></rects>
      <tilted>0</tilted></_>
    <_>
      <rects>
        <_>
          8 36 18 4 -1.</_>
        <_>
          17 36 9 4 2.</_></rects>
      <tilted>0</tilted></_>
    <_>
      <rects>
        <_>
          9 2 50 8 -1.</_>
        <_>
          9 6 50 4 2.</_></rects>
      <tilted>0</tilted></_>
    <_>
      <rects>
        <_>
          9 19 22 6 -1.</_>
        <_>
          9 21 22 2 3.</_></rects>
      <tilted>0</tilted></_>
    <_>
      <rects>
        <_>
          9 42 10 6 -1.</_>
        <_>
          9 42 5 3 2.</_>
        <_>
          14 45 5 3 2.</_></rects>
      <tilted>0</tilted></_>
    <_>
      <rects>
        <_>
          10 0 6 2 -1.</_>
        <_>
          10 0 3 1 2.</_>
        <_>
          13 1 3 1 2.</_></rects>
      <tilted>0</tilted></_>
    <_>
      <rects>
        <_>
          10 26 10 4 -1.</_>
        <_>
          10 28 10 2 2.</_></rects>
      <tilted>0</tilted></_>
    <_>
      <rects>
        <_>
          11 0 51 6 -1.</_>
        <_>
          28 0 17 6 3.</_></rects>
      <tilted>0</tilted></_>
    <_>
      <rects>
        <_>
          11 32 6 2 -1.</_>
        <_>
          11 33 6 1 2.</_></rects>
      <tilted>0</tilted></_>
    <_>
      <rects>
        <_>
          12 13 9 31 -1.</_>
        <_>
          15 13 3 31 3.</_></rects>
      <tilted>0</tilted></_>
    <_>
      <rects>
        <_>
          13 8 6 6 -1.</_>
        <_>
          13 8 3 3 2.</_>
        <_>
          16 11 3 3 2.</_></rects>
      <tilted>0</tilted></_>
    <_>
      <rects>
        <_>
          13 17 4 4 -1.</_>
        <_>
          15 17 2 4 2.</_></rects>
      <tilted>0</tilted></_>
    <_>
      <rects>
        <_>
          14 1 20 10 -1.</_>
        <_>
          14 6 20 5 2.</_></rects>
      <tilted>0</tilted></_>
    <_>
      <rects>
        <_>
          14 29 22 12 -1.</_>
        <_>
          14 29 11 6 2.</_>
        <_>
          25 35 11 6 2.</_></rects>
      <tilted>0</tilted></_>
    <_>
      <rects>
        <_>
          14 35 38 12 -1.</_>
        <_>
          14 39 38 4 3.</_></rects>
      <tilted>0</tilted></_>
    <_>
      <rects>
        <_>
          15 0 31 12 -1.</_>
        <_>
          15 6 31 6 2.</_></rects>
      <tilted>0</tilted></_>
    <_>
      <rects>
        <_>
          15 16 36 3 -1.</_>
        <_>
          15 17 36 1 3.</_></rects>
      <tilted>0</tilted></_>
    <_>
      <rects>
        <_>
          16 0 43 6 -1.</_>
        <_>
          16 2 43 2 3.</_></rects>
      <tilted>0</tilted></_>
    <_>
      <rects>
        <_>
          16 22 8 12 -1.</_>
        <_>
          16 22 4 6 2.</_>
        <_>
          20 28 4 6 2.</_></rects>
      <tilted>0</tilted></_>
    <_>
      <rects>
        <_>
          16 26 6 2 -1.</_>
        <_>
          16 27 6 1 2.</_></rects>
      <tilted>0</tilted></_>
    <_>
      <rects>
        <_>
          16 29 25 3 -1.</_>
        <_>
          16 30 25 1 3.</_></rects>
      <tilted>0</tilted></_>
    <_>
      <rects>
        <_>
          17 2 36 1 -1.</_>
        <_>
          29 2 12 1 3.</_></rects>
      <tilted>0</tilted></_>
    <_>
      <rects>
        <_>
          18 15 3 8 -1.</_>
        <_>
          19 15 1 8 3.</_></rects>
      <tilted>0</tilted></_>
    <_>
      <rects>
        <_>
          19 6 3 1 -1.</_>
        <_>
          20 6 1 1 3.</_></rects>
      <tilted>0</tilted></_>
    <_>
      <rects>
        <_>
          19 6 1 4 -1.</_>
        <_>
          19 8 1 2 2.</_></rects>
      <tilted>0</tilted></_>
    <_>
      <rects>
        <_>
          19 16 8 6 -1.</_>
        <_>
          19 16 4 3 2.</_>
        <_>
          23 19 4 3 2.</_></rects>
      <tilted>0</tilted></_>
    <_>
      <rects>
        <_>
          19 17 2 16 -1.</_>
        <_>
          19 17 1 8 2.</_>
        <_>
          20 25 1 8 2.</_></rects>
      <tilted>0</tilted></_>
    <_>
      <rects>
        <_>
          19 38 2 5 -1.</_>
        <_>
          20 38 1 5 2.</_></rects>
      <tilted>0</tilted></_>
    <_>
      <rects>
        <_>
          20 16 6 10 -1.</_>
        <_>
          20 16 3 5 2.</_>
        <_>
          23 21 3 5 2.</_></rects>
      <tilted>0</tilted></_>
    <_>
      <rects>
        <_>
          20 21 18 11 -1.</_>
        <_>
          26 21 6 11 3.</_></rects>
      <tilted>0</tilted></_>
    <_>
      <rects>
        <_>
          20 33 21 10 -1.</_>
        <_>
          20 38 21 5 2.</_></rects>
      <tilted>0</tilted></_>
    <_>
      <rects>
        <_>
          21 0 14 10 -1.</_>
        <_>
          21 5 14 5 2.</_></rects>
      <tilted>0</tilted></_>
    <_>
      <rects>
        <_>
          21 22 2 2 -1.</_>
        <_>
          22 22 1 2 2.</_></rects>
      <tilted>0</tilted></_>
    <_>
      <rects>
        <_>
          22 0 25 10 -1.</_>
        <_>
          22 5 25 5 2.</_></rects>
      <tilted>0</tilted></_>
    <_>
      <rects>
        <_>
          23 13 2 2 -1.</_>
        <_>
          23 14 2 1 2.</_></rects>
      <tilted>0</tilted></_>
    <_>
      <rects>
        <_>
          23 13 4 8 -1.</_>
        <_>
          23 13 2 4 2.</_>
        <_>
          25 17 2 4 2.</_></rects>
      <tilted>0</tilted></_>
    <_>
      <rects>
        <_>
          23 18 36 21 -1.</_>
        <_>
          35 18 12 21 3.</_></rects>
      <tilted>0</tilted></_>
    <_>
      <rects>
        <_>
          24 15 3 6 -1.</_>
        <_>
          24 17 3 2 3.</_></rects>
      <tilted>0</tilted></_>
    <_>
      <rects>
        <_>
          25 23 12 2 -1.</_>
        <_>
          31 23 6 2 2.</_></rects>
      <tilted>0</tilted></_>
    <_>
      <rects>
        <_>
          25 34 12 11 -1.</_>
        <_>
          29 34 4 11 3.</_></rects>
      <tilted>0</tilted></_>
    <_>
      <rects>
        <_>
          25 35 1 3 -1.</_>
        <_>
          25 36 1 1 3.</_></rects>
      <tilted>0</tilted></_>
    <_>
      <rects>
        <_>
          26 9 16 11 -1.</_>
        <_>
          34 9 8 11 2.</_></rects>
      <tilted>0</tilted></_>
    <_>
      <rects>
        <_>
          26 16 4 4 -1.</_>
        <_>
          26 16 2 2 2.</_>
        <_>
          28 18 2 2 2.</_></rects>
      <tilted>0</tilted></_>
    <_>
      <rects>
        <_>
          26 19 2 2 -1.</_>
        <_>
          26 19 1 1 2.</_>
        <_>
          27 20 1 1 2.</_></rects>
      <tilted>0</tilted></_>
    <_>
      <rects>
        <_>
          26 42 1 6 -1.</_>
        <_>
          26 44 1 2 3.</_></rects>
      <tilted>0</tilted></_>
    <_>
      <rects>
        <_>
          27 35 2 2 -1.</_>
        <_>
          27 35 1 1 2.</_>
        <_>
          28 36 1 1 2.</_></rects>
      <tilted>0</tilted></_>
    <_>
      <rects>
        <_>
          28 11 7 2 -1.</_>
        <_>
          28 12 7 1 2.</_></rects>
      <tilted>0</tilted></_>
    <_>
      <rects>
        <_>
          28 15 2 4 -1.</_>
        <_>
          28 15 1 2 2.</_>
        <_>
          29 17 1 2 2.</_></rects>
      <tilted>0</tilted></_>
    <_>
      <rects>
        <_>
          28 34 2 1 -1.</_>
        <_>
          29 34 1 1 2.</_></rects>
      <tilted>0</tilted></_>
    <_>
      <rects>
        <_>
          28 35 7 3 -1.</_>
        <_>
          28 36 7 1 3.</_></rects>
      <tilted>0</tilted></_>
    <_>
      <rects>
        <_>
          29 0 3 22 -1.</_>
        <_>
          30 0 1 22 3.</_></rects>
      <tilted>0</tilted></_>
    <_>
      <rects>
        <_>
          29 12 3 9 -1.</_>
        <_>
          30 12 1 9 3.</_></rects>
      <tilted>0</tilted></_>
    <_>
      <rects>
        <_>
          29 12 9 2 -1.</_>
        <_>
          29 13 9 1 2.</_></rects>
      <tilted>0</tilted></_>
    <_>
      <rects>
        <_>
          29 19 4 26 -1.</_>
        <_>
          29 19 2 13 2.</_>
        <_>
          31 32 2 13 2.</_></rects>
      <tilted>0</tilted></_>
    <_>
      <rects>
        <_>
          29 32 2 3 -1.</_>
        <_>
          29 33 2 1 3.</_></rects>
      <tilted>0</tilted></_>
    <_>
      <rects>
        <_>
          29 46 2 1 -1.</_>
        <_>
          30 46 1 1 2.</_></rects>
      <tilted>0</tilted></_>
    <_>
      <rects>
        <_>
          30 1 3 1 -1.</_>
        <_>
          31 1 1 1 3.</_></rects>
      <tilted>0</tilted></_>
    <_>
      <rects>
        <_>
          30 8 10 10 -1.</_>
        <_>
          30 8 5 5 2.</_>
        <_>
          35 13 5 5 2.</_></rects>
      <tilted>0</tilted></_>
    <_>
      <rects>
        <_>
          30 10 34 4 -1.</_>
        <_>
          30 10 17 2 2.</_>
        <_>
          47 12 17 2 2.</_></rects>
      <tilted>0</tilted></_>
    <_>
      <rects>
        <_>
          30 15 3 12 -1.</_>
        <_>
          31 15 1 12 3.</_></rects>
      <tilted>0</tilted></_>
    <_>
      <rects>
        <_>
          30 15 16 3 -1.</_>
        <_>
          38 15 8 3 2.</_></rects>
      <tilted>0</tilted></_>
    <_>
      <rects>
        <_>
          31 3 11 6 -1.</_>
        <_>
          31 6 11 3 2.</_></rects>
      <tilted>0</tilted></_>
    <_>
      <rects>
        <_>
          31 11 10 12 -1.</_>
        <_>
          31 11 5 6 2.</_>
        <_>
          36 17 5 6 2.</_></rects>
      <tilted>0</tilted></_>
    <_>
      <rects>
        <_>
          31 15 2 2 -1.</_>
        <_>
          31 15 1 1 2.</_>
        <_>
          32 16 1 1 2.</_></rects>
      <tilted>0</tilted></_>
    <_>
      <rects>
        <_>
          31 15 12 8 -1.</_>
        <_>
          31 15 6 4 2.</_>
        <_>
          37 19 6 4 2.</_></rects>
      <tilted>0</tilted></_>
    <_>
      <rects>
        <_>
          32 1 3 1 -1.</_>
        <_>
          33 1 1 1 3.</_></rects>
      <tilted>0</tilted></_>
    <_>
      <rects>
        <_>
          32 17 3 9 -1.</_>
        <_>
          33 17 1 9 3.</_></rects>
      <tilted>0</tilted></_>
    <_>
      <rects>
        <_>
          32 17 4 2 -1.</_>
        <_>
          32 17 2 1 2.</_>
        <_>
          34 18 2 1 2.</_></rects>
      <tilted>0</tilted></_>
    <_>
      <rects>
        <_>
          32 20 2 8 -1.</_>
        <_>
          32 20 1 4 2.</_>
        <_>
          33 24 1 4 2.</_></rects>
      <tilted>0</tilted></_>
    <_>
      <rects>
        <_>
          32 27 6 10 -1.</_>
        <_>
          35 27 3 10 2.</_></rects>
      <tilted>0</tilted></_>
    <_>
      <rects>
        <_>
          33 33 6 1 -1.</_>
        <_>
          36 33 3 1 2.</_></rects>
      <tilted>0</tilted></_>
    <_>
      <rects>
        <_>
          33 39 8 6 -1.</_>
        <_>
          33 41 8 2 3.</_></rects>
      <tilted>0</tilted></_>
    <_>
      <rects>
        <_>
          34 5 14 8 -1.</_>
        <_>
          34 5 7 4 2.</_>
        <_>
          41 9 7 4 2.</_></rects>
      <tilted>0</tilted></_>
    <_>
      <rects>
        <_>
          34 27 2 2 -1.</_>
        <_>
          34 27 1 1 2.</_>
        <_>
          35 28 1 1 2.</_></rects>
      <tilted>0</tilted></_>
    <_>
      <rects>
        <_>
          34 39 6 1 -1.</_>
        <_>
          36 39 2 1 3.</_></rects>
      <tilted>0</tilted></_>
    <_>
      <rects>
        <_>
          34 42 1 2 -1.</_>
        <_>
          34 43 1 1 2.</_></rects>
      <tilted>0</tilted></_>
    <_>
      <rects>
        <_>
          35 0 3 1 -1.</_>
        <_>
          36 0 1 1 3.</_></rects>
      <tilted>0</tilted></_>
    <_>
      <rects>
        <_>
          35 3 20 14 -1.</_>
        <_>
          35 3 10 7 2.</_>
        <_>
          45 10 10 7 2.</_></rects>
      <tilted>0</tilted></_>
    <_>
      <rects>
        <_>
          35 24 24 11 -1.</_>
        <_>
          43 24 8 11 3.</_></rects>
      <tilted>0</tilted></_>
    <_>
      <rects>
        <_>
          35 39 2 2 -1.</_>
        <_>
          35 39 1 1 2.</_>
        <_>
          36 40 1 1 2.</_></rects>
      <tilted>0</tilted></_>
    <_>
      <rects>
        <_>
          35 39 7 4 -1.</_>
        <_>
          35 41 7 2 2.</_></rects>
      <tilted>0</tilted></_>
    <_>
      <rects>
        <_>
          35 40 10 6 -1.</_>
        <_>
          35 42 10 2 3.</_></rects>
      <tilted>0</tilted></_>
    <_>
      <rects>
        <_>
          35 47 18 1 -1.</_>
        <_>
          41 47 6 1 3.</_></rects>
      <tilted>0</tilted></_>
    <_>
      <rects>
        <_>
          36 20 8 2 -1.</_>
        <_>
          36 20 4 1 2.</_>
        <_>
          40 21 4 1 2.</_></rects>
      <tilted>0</tilted></_>
    <_>
      <rects>
        <_>
          36 25 2 2 -1.</_>
        <_>
          36 25 1 1 2.</_>
        <_>
          37 26 1 1 2.</_></rects>
      <tilted>0</tilted></_>
    <_>
      <rects>
        <_>
          36 26 2 4 -1.</_>
        <_>
          36 28 2 2 2.</_></rects>
      <tilted>0</tilted></_>
    <_>
      <rects>
        <_>
          37 0 3 40 -1.</_>
        <_>
          38 0 1 40 3.</_></rects>
      <tilted>0</tilted></_>
    <_>
      <rects>
        <_>
          37 3 21 12 -1.</_>
        <_>
          44 3 7 12 3.</_></rects>
      <tilted>0</tilted></_>
    <_>
      <rects>
        <_>
          37 6 4 4 -1.</_>
        <_>
          37 8 4 2 2.</_></rects>
      <tilted>0</tilted></_>
    <_>
      <rects>
        <_>
          37 6 18 20 -1.</_>
        <_>
          37 6 9 10 2.</_>
        <_>
          46 16 9 10 2.</_></rects>
      <tilted>0</tilted></_>
    <_>
      <rects>
        <_>
          37 7 6 9 -1.</_>
        <_>
          39 7 2 9 3.</_></rects>
      <tilted>0</tilted></_>
    <_>
      <rects>
        <_>
          37 17 26 19 -1.</_>
        <_>
          50 17 13 19 2.</_></rects>
      <tilted>0</tilted></_>
    <_>
      <rects>
        <_>
          37 20 4 8 -1.</_>
        <_>
          37 20 2 4 2.</_>
        <_>
          39 24 2 4 2.</_></rects>
      <tilted>0</tilted></_>
    <_>
      <rects>
        <_>
          37 22 24 3 -1.</_>
        <_>
          45 22 8 3 3.</_></rects>
      <tilted>0</tilted></_>
    <_>
      <rects>
        <_>
          37 41 2 3 -1.</_>
        <_>
          37 42 2 1 3.</_></rects>
      <tilted>0</tilted></_>
    <_>
      <rects>
        <_>
          38 0 3 1 -1.</_>
        <_>
          39 0 1 1 3.</_></rects>
      <tilted>0</tilted></_>
    <_>
      <rects>
        <_>
          38 35 4 7 -1.</_>
        <_>
          40 35 2 7 2.</_></rects>
      <tilted>0</tilted></_>
    <_>
      <rects>
        <_>
          38 38 10 8 -1.</_>
        <_>
          38 38 5 4 2.</_>
        <_>
          43 42 5 4 2.</_></rects>
      <tilted>0</tilted></_>
    <_>
      <rects>
        <_>
          39 11 6 17 -1.</_>
        <_>
          41 11 2 17 3.</_></rects>
      <tilted>0</tilted></_>
    <_>
      <rects>
        <_>
          39 31 7 6 -1.</_>
        <_>
          39 33 7 2 3.</_></rects>
      <tilted>0</tilted></_>
    <_>
      <rects>
        <_>
          39 43 4 2 -1.</_>
        <_>
          41 43 2 2 2.</_></rects>
      <tilted>0</tilted></_>
    <_>
      <rects>
        <_>
          40 10 4 8 -1.</_>
        <_>
          40 10 2 4 2.</_>
        <_>
          42 14 2 4 2.</_></rects>
      <tilted>0</tilted></_>
    <_>
      <rects>
        <_>
          40 43 12 2 -1.</_>
        <_>
          44 43 4 2 3.</_></rects>
      <tilted>0</tilted></_>
    <_>
      <rects>
        <_>
          42 8 6 21 -1.</_>
        <_>
          42 15 6 7 3.</_></rects>
      <tilted>0</tilted></_>
    <_>
      <rects>
        <_>
          42 23 3 3 -1.</_>
        <_>
          42 24 3 1 3.</_></rects>
      <tilted>0</tilted></_>
    <_>
      <rects>
        <_>
          42 27 8 3 -1.</_>
        <_>
          42 28 8 1 3.</_></rects>
      <tilted>0</tilted></_>
    <_>
      <rects>
        <_>
          43 13 14 16 -1.</_>
        <_>
          50 13 7 16 2.</_></rects>
      <tilted>0</tilted></_>
    <_>
      <rects>
        <_>
          43 29 20 6 -1.</_>
        <_>
          43 31 20 2 3.</_></rects>
      <tilted>0</tilted></_>
    <_>
      <rects>
        <_>
          44 0 4 6 -1.</_>
        <_>
          44 0 2 3 2.</_>
        <_>
          46 3 2 3 2.</_></rects>
      <tilted>0</tilted></_>
    <_>
      <rects>
        <_>
          44 2 3 12 -1.</_>
        <_>
          44 6 3 4 3.</_></rects>
      <tilted>0</tilted></_>
    <_>
      <rects>
        <_>
          44 15 15 10 -1.</_>
        <_>
          49 15 5 10 3.</_></rects>
      <tilted>0</tilted></_>
    <_>
      <rects>
        <_>
          44 21 4 4 -1.</_>
        <_>
          44 21 2 2 2.</_>
        <_>
          46 23 2 2 2.</_></rects>
      <tilted>0</tilted></_>
    <_>
      <rects>
        <_>
          44 30 15 12 -1.</_>
        <_>
          44 34 15 4 3.</_></rects>
      <tilted>0</tilted></_>
    <_>
      <rects>
        <_>
          45 12 8 10 -1.</_>
        <_>
          45 12 4 5 2.</_>
        <_>
          49 17 4 5 2.</_></rects>
      <tilted>0</tilted></_>
    <_>
      <rects>
        <_>
          45 18 6 5 -1.</_>
        <_>
          47 18 2 5 3.</_></rects>
      <tilted>0</tilted></_>
    <_>
      <rects>
        <_>
          45 32 14 2 -1.</_>
        <_>
          45 33 14 1 2.</_></rects>
      <tilted>0</tilted></_>
    <_>
      <rects>
        <_>
          46 10 4 10 -1.</_>
        <_>
          46 10 2 5 2.</_>
        <_>
          48 15 2 5 2.</_></rects>
      <tilted>0</tilted></_>
    <_>
      <rects>
        <_>
          46 19 18 11 -1.</_>
        <_>
          55 19 9 11 2.</_></rects>
      <tilted>0</tilted></_>
    <_>
      <rects>
        <_>
          48 1 12 2 -1.</_>
        <_>
          48 1 6 1 2.</_>
        <_>
          54 2 6 1 2.</_></rects>
      <tilted>0</tilted></_>
    <_>
      <rects>
        <_>
          48 5 14 2 -1.</_>
        <_>
          48 5 7 1 2.</_>
        <_>
          55 6 7 1 2.</_></rects>
      <tilted>0</tilted></_>
    <_>
      <rects>
        <_>
          48 10 4 30 -1.</_>
        <_>
          48 10 2 15 2.</_>
        <_>
          50 25 2 15 2.</_></rects>
      <tilted>0</tilted></_>
    <_>
      <rects>
        <_>
          48 21 2 24 -1.</_>
        <_>
          48 29 2 8 3.</_></rects>
      <tilted>0</tilted></_>
    <_>
      <rects>
        <_>
          49 31 12 1 -1.</_>
        <_>
          53 31 4 1 3.</_></rects>
      <tilted>0</tilted></_>
    <_>
      <rects>
        <_>
          50 22 12 12 -1.</_>
        <_>
          54 22 4 12 3.</_></rects>
      <tilted>0</tilted></_>
    <_>
      <rects>
        <_>
          51 42 2 5 -1.</_>
        <_>
          52 42 1 5 2.</_></rects>
      <tilted>0</tilted></_>
    <_>
      <rects>
        <_>
          52 0 12 1 -1.</_>
        <_>
          58 0 6 1 2.</_></rects>
      <tilted>0</tilted></_>
    <_>
      <rects>
        <_>
          52 27 3 6 -1.</_>
        <_>
          52 30 3 3 2.</_></rects>
      <tilted>0</tilted></_>
    <_>
      <rects>
        <_>
          53 16 1 8 -1.</_>
        <_>
          53 20 1 4 2.</_></rects>
      <tilted>0</tilted></_>
    <_>
      <rects>
        <_>
          54 4 4 3 -1.</_>
        <_>
          54 5 4 1 3.</_></rects>
      <tilted>0</tilted></_>
    <_>
      <rects>
        <_>
          55 2 9 34 -1.</_>
        <_>
          58 2 3 34 3.</_></rects>
      <tilted>0</tilted></_>
    <_>
      <rects>
        <_>
          55 47 9 1 -1.</_>
        <_>
          58 47 3 1 3.</_></rects>
      <tilted>0</tilted></_>
    <_>
      <rects>
        <_>
          56 0 3 2 -1.</_>
        <_>
          56 1 3 1 2.</_></rects>
      <tilted>0</tilted></_>
    <_>
      <rects>
        <_>
          57 3 6 10 -1.</_>
        <_>
          59 3 2 10 3.</_></rects>
      <tilted>0</tilted></_>
    <_>
      <rects>
        <_>
          58 20 3 3 -1.</_>
        <_>
          58 21 3 1 3.</_></rects>
      <tilted>0</tilted></_>
    <_>
      <rects>
        <_>
          58 26 4 6 -1.</_>
        <_>
          58 28 4 2 3.</_></rects>
      <tilted>0</tilted></_>
    <_>
      <rects>
        <_>
          59 0 2 2 -1.</_>
        <_>
          60 0 1 2 2.</_></rects>
      <tilted>0</tilted></_>
    <_>
      <rects>
        <_>
          59 2 3 19 -1.</_>
        <_>
          60 2 1 19 3.</_></rects>
      <tilted>0</tilted></_>
    <_>
      <rects>
        <_>
          59 11 4 3 -1.</_>
        <_>
          59 12 4 1 3.</_></rects>
      <tilted>0</tilted></_>
    <_>
      <rects>
        <_>
          60 12 3 3 -1.</_>
        <_>
          60 13 3 1 3.</_></rects>
      <tilted>0</tilted></_>
    <_>
      <rects>
        <_>
          60 18 4 15 -1.</_>
        <_>
          62 18 2 15 2.</_></rects>
      <tilted>0</tilted></_>
    <_>
      <rects>
        <_>
          61 4 3 3 -1.</_>
        <_>
          61 5 3 1 3.</_></rects>
      <tilted>0</tilted></_>
    <_>
      <rects>
        <_>
          61 12 3 1 -1.</_>
        <_>
          62 12 1 1 3.</_></rects>
      <tilted>0</tilted></_>
    <_>
      <rects>
        <_>
          62 8 2 12 -1.</_>
        <_>
          62 8 1 6 2.</_>
        <_>
          63 14 1 6 2.</_></rects>
      <tilted>0</tilted></_>
    <_>
      <rects>
        <_>
          62 18 2 8 -1.</_>
        <_>
          62 18 1 4 2.</_>
        <_>
          63 22 1 4 2.</_></rects>
      <tilted>0</tilted></_>
    <_>
      <rects>
        <_>
          62 24 2 4 -1.</_>
        <_>
          62 24 1 2 2.</_>
        <_>
          63 26 1 2 2.</_></rects>
      <tilted>0</tilted></_>
    <_>
      <rects>
        <_>
          62 41 2 6 -1.</_>
        <_>
          62 43 2 2 3.</_></rects>
      <tilted>0</tilted></_></features></cascade>
</opencv_storage>
